Language model created by QuickLM on Thu Jun 15 12:03:36 EDT 2017
Copyright (c) 1996-2010 Carnegie Mellon University and Alexander I. Rudnicky

The model is in standard ARPA format, designed by Doug Paul while he was at MITRE.

The code that was used to produce this language model is available in Open Source.
Please visit http://www.speech.cs.cmu.edu/tools/ for more information

The (fixed) discount mass is 0.5. The backoffs are computed using the ratio method.
This model based on a corpus of 38 sentences and 49 words

\data\
ngram 1=49
ngram 2=86
ngram 3=55

\1-grams:
-0.8385 </s> -0.3010
-0.8385 <s> -0.2271
-2.4183 A -0.2977
-2.4183 ALARM -0.2330
-2.4183 ALGORITHM -0.2330
-2.4183 AN -0.2994
-2.4183 AT -0.2977
-2.4183 CANCEL -0.2977
-1.9412 CHECK -0.2943
-2.4183 EIGHT -0.2330
-2.4183 EIGHTEEN -0.2330
-2.4183 ELEVEN -0.2330
-2.4183 EMAIL -0.2330
-2.4183 EVENTS -0.2330
-2.4183 FIFTEEN -0.2330
-2.4183 FIVE -0.2330
-2.4183 FOR -0.2330
-2.4183 FOUR -0.2330
-2.4183 FOURTEEN -0.2330
-2.4183 HISTORY -0.2330
-2.4183 HOW -0.2994
-2.4183 IS -0.2994
-2.4183 MINUTES -0.2330
-1.9412 MUSIC -0.2330
-2.4183 NEXT -0.2960
-2.4183 NINE -0.2330
-2.4183 NINETEEN -0.2330
-2.4183 OCLOCK -0.2330
-2.1173 ONE -0.2310
-2.4183 SAM -0.2330
-2.4183 SECOND -0.2330
-2.4183 SEND -0.2994
-2.1173 SET -0.2977
-2.4183 SEVEN -0.2330
-2.4183 SEVENTEEN -0.2330
-2.4183 SIX -0.2330
-2.4183 SIXTEEN -0.2330
-2.4183 STOP -0.2960
-2.4183 TEN -0.2330
-2.4183 THE -0.2977
-2.4183 THIRTEEN -0.2330
-2.4183 THREE -0.2330
-2.1173 TIMER -0.2330
-2.4183 TO -0.2994
-2.4183 TWELVE -0.2330
-2.4183 TWENTY -0.2330
-2.4183 TWO -0.2330
-2.4183 VINCENT -0.2330
-2.1173 WEATHER -0.2330

\2-grams:
-1.8808 <s> ALGORITHM 0.0000
-1.8808 <s> AT 0.0000
-1.8808 <s> CANCEL 0.0000
-1.4037 <s> CHECK 0.0000
-1.8808 <s> EIGHT 0.0000
-1.8808 <s> EIGHTEEN 0.0000
-1.8808 <s> ELEVEN 0.0000
-1.8808 <s> FIFTEEN 0.0000
-1.8808 <s> FIVE 0.0000
-1.8808 <s> FOR 0.0000
-1.8808 <s> FOUR 0.0000
-1.8808 <s> FOURTEEN 0.0000
-1.8808 <s> HOW 0.0000
-1.8808 <s> MINUTES 0.0000
-1.8808 <s> MUSIC 0.0000
-1.8808 <s> NEXT 0.0000
-1.8808 <s> NINE 0.0000
-1.8808 <s> NINETEEN 0.0000
-1.8808 <s> ONE -0.1761
-1.8808 <s> SAM 0.0000
-1.8808 <s> SECOND 0.0000
-1.8808 <s> SEND 0.0000
-1.5798 <s> SET 0.0000
-1.8808 <s> SEVEN 0.0000
-1.8808 <s> SEVENTEEN 0.0000
-1.8808 <s> SIX 0.0000
-1.8808 <s> SIXTEEN 0.0000
-1.8808 <s> STOP 0.0000
-1.8808 <s> TEN 0.0000
-1.8808 <s> THIRTEEN 0.0000
-1.8808 <s> THREE 0.0000
-1.8808 <s> TO 0.0000
-1.8808 <s> TWELVE 0.0000
-1.8808 <s> TWENTY 0.0000
-1.8808 <s> TWO 0.0000
-0.3010 A TIMER 0.0000
-0.3010 ALARM </s> -0.3010
-0.3010 ALGORITHM </s> -0.3010
-0.3010 AN ALARM 0.0000
-0.3010 AT ONE -0.1761
-0.3010 CANCEL TIMER 0.0000
-0.7782 CHECK EVENTS 0.0000
-0.7782 CHECK HISTORY 0.0000
-0.7782 CHECK WEATHER 0.0000
-0.3010 EIGHT </s> -0.3010
-0.3010 EIGHTEEN </s> -0.3010
-0.3010 ELEVEN </s> -0.3010
-0.3010 EMAIL </s> -0.3010
-0.3010 EVENTS </s> -0.3010
-0.3010 FIFTEEN </s> -0.3010
-0.3010 FIVE </s> -0.3010
-0.3010 FOR </s> -0.3010
-0.3010 FOUR </s> -0.3010
-0.3010 FOURTEEN </s> -0.3010
-0.3010 HISTORY </s> -0.3010
-0.3010 HOW IS 0.0000
-0.3010 IS THE 0.0000
-0.3010 MINUTES </s> -0.3010
-0.3010 MUSIC </s> -0.3010
-0.3010 NEXT MUSIC 0.0000
-0.3010 NINE </s> -0.3010
-0.3010 NINETEEN </s> -0.3010
-0.3010 OCLOCK </s> -0.3010
-0.6021 ONE </s> -0.3010
-0.6021 ONE OCLOCK 0.0000
-0.3010 SAM </s> -0.3010
-0.3010 SECOND </s> -0.3010
-0.3010 SEND EMAIL 0.0000
-0.6021 SET A 0.0000
-0.6021 SET AN 0.0000
-0.3010 SEVEN </s> -0.3010
-0.3010 SEVENTEEN </s> -0.3010
-0.3010 SIX </s> -0.3010
-0.3010 SIXTEEN </s> -0.3010
-0.3010 STOP MUSIC 0.0000
-0.3010 TEN </s> -0.3010
-0.3010 THE WEATHER 0.0000
-0.3010 THIRTEEN </s> -0.3010
-0.3010 THREE </s> -0.3010
-0.3010 TIMER </s> -0.3010
-0.3010 TO VINCENT 0.0000
-0.3010 TWELVE </s> -0.3010
-0.3010 TWENTY </s> -0.3010
-0.3010 TWO </s> -0.3010
-0.3010 VINCENT </s> -0.3010
-0.3010 WEATHER </s> -0.3010

\3-grams:
-0.3010 <s> ALGORITHM </s>
-0.3010 <s> AT ONE
-0.3010 <s> CANCEL TIMER
-0.7782 <s> CHECK EVENTS
-0.7782 <s> CHECK HISTORY
-0.7782 <s> CHECK WEATHER
-0.3010 <s> EIGHT </s>
-0.3010 <s> EIGHTEEN </s>
-0.3010 <s> ELEVEN </s>
-0.3010 <s> FIFTEEN </s>
-0.3010 <s> FIVE </s>
-0.3010 <s> FOR </s>
-0.3010 <s> FOUR </s>
-0.3010 <s> FOURTEEN </s>
-0.3010 <s> HOW IS
-0.3010 <s> MINUTES </s>
-0.3010 <s> MUSIC </s>
-0.3010 <s> NEXT MUSIC
-0.3010 <s> NINE </s>
-0.3010 <s> NINETEEN </s>
-0.3010 <s> ONE </s>
-0.3010 <s> SAM </s>
-0.3010 <s> SECOND </s>
-0.3010 <s> SEND EMAIL
-0.6021 <s> SET A
-0.6021 <s> SET AN
-0.3010 <s> SEVEN </s>
-0.3010 <s> SEVENTEEN </s>
-0.3010 <s> SIX </s>
-0.3010 <s> SIXTEEN </s>
-0.3010 <s> STOP MUSIC
-0.3010 <s> TEN </s>
-0.3010 <s> THIRTEEN </s>
-0.3010 <s> THREE </s>
-0.3010 <s> TO VINCENT
-0.3010 <s> TWELVE </s>
-0.3010 <s> TWENTY </s>
-0.3010 <s> TWO </s>
-0.3010 A TIMER </s>
-0.3010 AN ALARM </s>
-0.3010 AT ONE OCLOCK
-0.3010 CANCEL TIMER </s>
-0.3010 CHECK EVENTS </s>
-0.3010 CHECK HISTORY </s>
-0.3010 CHECK WEATHER </s>
-0.3010 HOW IS THE
-0.3010 IS THE WEATHER
-0.3010 NEXT MUSIC </s>
-0.3010 ONE OCLOCK </s>
-0.3010 SEND EMAIL </s>
-0.3010 SET A TIMER
-0.3010 SET AN ALARM
-0.3010 STOP MUSIC </s>
-0.3010 THE WEATHER </s>
-0.3010 TO VINCENT </s>

\end\
