Language model created by QuickLM on Tue Jun  6 21:37:40 EDT 2017
Copyright (c) 1996-2010 Carnegie Mellon University and Alexander I. Rudnicky

The model is in standard ARPA format, designed by Doug Paul while he was at MITRE.

The code that was used to produce this language model is available in Open Source.
Please visit http://www.speech.cs.cmu.edu/tools/ for more information

The (fixed) discount mass is 0.5. The backoffs are computed using the ratio method.
This model based on a corpus of 4 sentences and 6 words

\data\
ngram 1=6
ngram 2=8
ngram 3=4

\1-grams:
-0.7782 </s> -0.3010
-0.7782 <s> -0.2218
-1.3802 ALGORITHM -0.2218
-1.3802 MOVIES -0.2218
-1.3802 MUSIC -0.2218
-1.3802 SPORTS -0.2218

\2-grams:
-0.9031 <s> ALGORITHM 0.0000
-0.9031 <s> MOVIES 0.0000
-0.9031 <s> MUSIC 0.0000
-0.9031 <s> SPORTS 0.0000
-0.3010 ALGORITHM </s> -0.3010
-0.3010 MOVIES </s> -0.3010
-0.3010 MUSIC </s> -0.3010
-0.3010 SPORTS </s> -0.3010

\3-grams:
-0.3010 <s> ALGORITHM </s>
-0.3010 <s> MOVIES </s>
-0.3010 <s> MUSIC </s>
-0.3010 <s> SPORTS </s>

\end\
