Language model created by QuickLM on Sun Jun 11 23:45:08 EDT 2017
Copyright (c) 1996-2010 Carnegie Mellon University and Alexander I. Rudnicky

The model is in standard ARPA format, designed by Doug Paul while he was at MITRE.

The code that was used to produce this language model is available in Open Source.
Please visit http://www.speech.cs.cmu.edu/tools/ for more information

The (fixed) discount mass is 0.5. The backoffs are computed using the ratio method.
This model based on a corpus of 191 sentences and 42 words

\data\
ngram 1=42
ngram 2=72
ngram 3=79

\1-grams:
-1.3171 </s> -0.3010
-1.3171 <s> -0.2789
-3.2971 ALGORITHMS -0.2846
-3.2971 BACK -0.3008
-2.4220 BUBBLESORT -0.2796
-2.4220 BUCKETSORT -0.2796
-1.4398 CAN -0.2847
-3.1210 CHANGE -0.3004
-2.4220 COMBSORT -0.2796
-1.3429 COMPLEXITY -0.2808
-2.4220 COUNTINGSORT -0.2796
-3.5981 DO -0.2847
-2.4220 EXTERNALSORT -0.2796
-1.7408 GIVE -0.2850
-3.2971 GO -0.3008
-2.4220 HEAPSORT -0.2796
-2.4220 INSERTIONSORT -0.2796
-2.0418 IS -0.2807
-3.2971 KNOW -0.2796
-3.1210 LET -0.3007
-3.1210 LET'S -0.3002
-3.5981 LIST -0.2807
-1.4398 ME -0.2807
-3.1210 MENU -0.2796
-2.4220 MERGESORT -0.2796
-1.3429 OF -0.2808
-1.7408 PLEASE -0.2850
-2.4220 QUICKSORT -0.2796
-2.4220 RADIXSORT -0.2796
-2.4220 SELECTIONSORT -0.2796
-2.4220 SHELLSORT -0.2796
-1.8200 SPACE -0.2808
-3.1210 SWITCH -0.3004
-1.7408 TELL -0.2850
-1.3405 THE -0.2666
-1.8200 TIME -0.2808
-3.2971 TO -0.3007
-2.8200 TOPIC -0.2796
-3.1210 US -0.3002
-2.0418 WHAT -0.2971
-3.5981 WHICH -0.3008
-1.4338 YOU -0.2765

\2-grams:
-0.4237 <s> CAN 0.0000
-2.5821 <s> CHANGE 0.0000
-2.1049 <s> LET 0.0000
-2.1049 <s> LET'S 0.0000
-2.5821 <s> LIST 0.0000
-2.5821 <s> MENU 0.0000
-2.5821 <s> SWITCH 0.0000
-1.0258 <s> WHAT 0.0000
-2.5821 <s> WHICH 0.0000
-0.6021 ALGORITHMS DO 0.0000
-0.6021 ALGORITHMS YOU -0.2980
-0.3010 BACK TO 0.0000
-0.3010 BUBBLESORT </s> -0.3010
-0.3010 BUCKETSORT </s> -0.3010
-0.3010 CAN YOU -0.0059
-0.3010 CHANGE TOPIC 0.0000
-0.3010 COMBSORT </s> -0.3010
-0.3010 COMPLEXITY OF 0.0000
-0.3010 COUNTINGSORT </s> -0.3010
-0.3010 DO YOU -0.2980
-0.3010 EXTERNALSORT </s> -0.3010
-0.3010 GIVE ME 0.0000
-0.3010 GO BACK 0.0000
-0.3010 HEAPSORT </s> -0.3010
-0.3010 INSERTIONSORT </s> -0.3010
-0.3010 IS THE -0.0024
-0.3010 KNOW </s> -0.3010
-0.3010 LET US 0.0000
-0.7782 LET'S CHANGE 0.0000
-0.7782 LET'S GO 0.0000
-0.7782 LET'S SWITCH 0.0000
-0.3010 LIST THE -0.2998
-0.3010 ME THE -0.0024
-0.3010 MENU </s> -0.3010
-0.3010 MERGESORT </s> -0.3010
-1.3802 OF BUBBLESORT 0.0000
-1.3802 OF BUCKETSORT 0.0000
-1.3802 OF COMBSORT 0.0000
-1.3802 OF COUNTINGSORT 0.0000
-1.3802 OF EXTERNALSORT 0.0000
-1.3802 OF HEAPSORT 0.0000
-1.3802 OF INSERTIONSORT 0.0000
-1.3802 OF MERGESORT 0.0000
-1.3802 OF QUICKSORT 0.0000
-1.3802 OF RADIXSORT 0.0000
-1.3802 OF SELECTIONSORT 0.0000
-1.3802 OF SHELLSORT 0.0000
-0.6021 PLEASE GIVE 0.0000
-0.6021 PLEASE TELL 0.0000
-0.3010 QUICKSORT </s> -0.3010
-0.3010 RADIXSORT </s> -0.3010
-0.3010 SELECTIONSORT </s> -0.3010
-0.3010 SHELLSORT </s> -0.3010
-0.3010 SPACE COMPLEXITY 0.0000
-0.3010 SWITCH TOPIC 0.0000
-0.3010 TELL ME 0.0000
-2.5587 THE ALGORITHMS -0.1761
-0.7806 THE COMPLEXITY 0.0000
-0.7806 THE SPACE 0.0000
-0.7806 THE TIME 0.0000
-0.3010 TIME COMPLEXITY 0.0000
-0.3010 TO MENU 0.0000
-0.3010 TOPIC </s> -0.3010
-0.7782 US CHANGE 0.0000
-0.7782 US GO 0.0000
-0.7782 US SWITCH 0.0000
-0.3010 WHAT IS 0.0000
-0.3010 WHICH ALGORITHMS -0.1761
-0.9091 YOU GIVE 0.0000
-2.1644 YOU KNOW 0.0000
-0.6081 YOU PLEASE 0.0000
-0.9091 YOU TELL 0.0000

\3-grams:
-0.3010 <s> CAN YOU
-0.3010 <s> CHANGE TOPIC
-0.3010 <s> LET US
-0.7782 <s> LET'S CHANGE
-0.7782 <s> LET'S GO
-0.7782 <s> LET'S SWITCH
-0.3010 <s> LIST THE
-0.3010 <s> MENU </s>
-0.3010 <s> SWITCH TOPIC
-0.3010 <s> WHAT IS
-0.3010 <s> WHICH ALGORITHMS
-0.3010 ALGORITHMS DO YOU
-0.3010 ALGORITHMS YOU KNOW
-0.3010 BACK TO MENU
-0.9031 CAN YOU GIVE
-0.6021 CAN YOU PLEASE
-0.9031 CAN YOU TELL
-0.3010 CHANGE TOPIC </s>
-1.3802 COMPLEXITY OF BUBBLESORT
-1.3802 COMPLEXITY OF BUCKETSORT
-1.3802 COMPLEXITY OF COMBSORT
-1.3802 COMPLEXITY OF COUNTINGSORT
-1.3802 COMPLEXITY OF EXTERNALSORT
-1.3802 COMPLEXITY OF HEAPSORT
-1.3802 COMPLEXITY OF INSERTIONSORT
-1.3802 COMPLEXITY OF MERGESORT
-1.3802 COMPLEXITY OF QUICKSORT
-1.3802 COMPLEXITY OF RADIXSORT
-1.3802 COMPLEXITY OF SELECTIONSORT
-1.3802 COMPLEXITY OF SHELLSORT
-0.3010 DO YOU KNOW
-0.3010 GIVE ME THE
-0.3010 GO BACK TO
-0.7782 IS THE COMPLEXITY
-0.7782 IS THE SPACE
-0.7782 IS THE TIME
-0.7782 LET US CHANGE
-0.7782 LET US GO
-0.7782 LET US SWITCH
-0.3010 LET'S CHANGE TOPIC
-0.3010 LET'S GO BACK
-0.3010 LET'S SWITCH TOPIC
-0.3010 LIST THE ALGORITHMS
-0.7782 ME THE COMPLEXITY
-0.7782 ME THE SPACE
-0.7782 ME THE TIME
-0.3010 OF BUBBLESORT </s>
-0.3010 OF BUCKETSORT </s>
-0.3010 OF COMBSORT </s>
-0.3010 OF COUNTINGSORT </s>
-0.3010 OF EXTERNALSORT </s>
-0.3010 OF HEAPSORT </s>
-0.3010 OF INSERTIONSORT </s>
-0.3010 OF MERGESORT </s>
-0.3010 OF QUICKSORT </s>
-0.3010 OF RADIXSORT </s>
-0.3010 OF SELECTIONSORT </s>
-0.3010 OF SHELLSORT </s>
-0.3010 PLEASE GIVE ME
-0.3010 PLEASE TELL ME
-0.3010 SPACE COMPLEXITY OF
-0.3010 SWITCH TOPIC </s>
-0.3010 TELL ME THE
-0.3010 THE ALGORITHMS YOU
-0.3010 THE COMPLEXITY OF
-0.3010 THE SPACE COMPLEXITY
-0.3010 THE TIME COMPLEXITY
-0.3010 TIME COMPLEXITY OF
-0.3010 TO MENU </s>
-0.3010 US CHANGE TOPIC
-0.3010 US GO BACK
-0.3010 US SWITCH TOPIC
-0.3010 WHAT IS THE
-0.3010 WHICH ALGORITHMS DO
-0.3010 YOU GIVE ME
-0.3010 YOU KNOW </s>
-0.6021 YOU PLEASE GIVE
-0.6021 YOU PLEASE TELL
-0.3010 YOU TELL ME

\end\
